{
  "x": [
    "100",
    "100",
    "17",
    "12",
    "24",
    "0"
  ],
  "W1": [
    [
      "-2",
      "-3",
      "2",
      "-3",
      "3",
      "0"
    ],
    [
      "3",
      "-2",
      "-3",
      "3",
      "2",
      "3"
    ],
    [
      "-1",
      "-1",
      "1",
      "0",
      "-2",
      "-1"
    ],
    [
      "1",
      "-3",
      "-1",
      "-1",
      "-3",
      "-3"
    ]
  ],
  "b1": [
    "0",
    "-4",
    "-2",
    "1"
  ],
  "W2": [
    [
      "-107",
      "-84",
      "433",
      "34"
    ],
    [
      "107",
      "84",
      "-433",
      "-34"
    ]
  ],
  "b2": [
    "12469980",
    "6610941"
  ],
  "clientCertificate": "123456",
  "salt": "78910",
  "nonce": "88",
  "modelHash": "2343324374875334899627985686754708129507583347351797042537511112568400053839",
  "inputHash": "13894750453159494807728746841748223730495154129747099289064451671609166405649",
  "clientID": "10481795837344697232185453302355071963745123196802879963553243120939139498969",
  "requestHash": "10878119063049448896615740055265298188983003458132181476410654386913829675183",
  "normalScore": "17854973",
  "attackScore": "1225948"
}