{
  "x": [
    "100",
    "0",
    "33",
    "61",
    "61",
    "14"
  ],
  "W1": [
    [
      "-2",
      "-3",
      "2",
      "-3",
      "3",
      "0"
    ],
    [
      "3",
      "-2",
      "-3",
      "3",
      "2",
      "3"
    ],
    [
      "-1",
      "-1",
      "1",
      "0",
      "-2",
      "-1"
    ],
    [
      "1",
      "-3",
      "-1",
      "-1",
      "-3",
      "-3"
    ]
  ],
  "b1": [
    "0",
    "-4",
    "-2",
    "1"
  ],
  "W2": [
    [
      "-107",
      "-84",
      "433",
      "34"
    ],
    [
      "107",
      "84",
      "-433",
      "-34"
    ]
  ],
  "b2": [
    "12469980",
    "6610941"
  ],
  "clientCertificate": "123456",
  "salt": "78910",
  "nonce": "31",
  "modelHash": "2343324374875334899627985686754708129507583347351797042537511112568400053839",
  "inputHash": "743574745500275497200980863512696093836158759653391673681888932654494052450",
  "clientID": "10481795837344697232185453302355071963745123196802879963553243120939139498969",
  "requestHash": "10179960805621753070944514640571892150300307923139642859235662201579292191307",
  "normalScore": "5502705",
  "attackScore": "13578216"
}