{
  "x": [
    "100",
    "100",
    "17",
    "24",
    "24",
    "0"
  ],
  "W1": [
    [
      "-2",
      "-3",
      "2",
      "-3",
      "3",
      "0"
    ],
    [
      "3",
      "-2",
      "-3",
      "3",
      "2",
      "3"
    ],
    [
      "-1",
      "-1",
      "1",
      "0",
      "-2",
      "-1"
    ],
    [
      "1",
      "-3",
      "-1",
      "-1",
      "-3",
      "-3"
    ]
  ],
  "b1": [
    "0",
    "-4",
    "-2",
    "1"
  ],
  "W2": [
    [
      "-107",
      "-84",
      "433",
      "34"
    ],
    [
      "107",
      "84",
      "-433",
      "-34"
    ]
  ],
  "b2": [
    "12469980",
    "6610941"
  ],
  "clientCertificate": "123456",
  "salt": "78910",
  "nonce": "58",
  "modelHash": "2343324374875334899627985686754708129507583347351797042537511112568400053839",
  "inputHash": "8207915792691279285829018406042918764474693434844871479285161968654166592570",
  "clientID": "10481795837344697232185453302355071963745123196802879963553243120939139498969",
  "requestHash": "15490031200278527583529184073100366288688576123310169695810666917325054127709",
  "normalScore": "13764221",
  "attackScore": "5316700"
}