{
  "x": [
    "100",
    "0",
    "33",
    "90",
    "90",
    "10"
  ],
  "W1": [
    [
      "-2",
      "-3",
      "2",
      "-3",
      "3",
      "0"
    ],
    [
      "3",
      "-2",
      "-3",
      "3",
      "2",
      "3"
    ],
    [
      "-1",
      "-1",
      "1",
      "0",
      "-2",
      "-1"
    ],
    [
      "1",
      "-3",
      "-1",
      "-1",
      "-3",
      "-3"
    ]
  ],
  "b1": [
    "0",
    "-4",
    "-2",
    "1"
  ],
  "W2": [
    [
      "-107",
      "-84",
      "433",
      "34"
    ],
    [
      "107",
      "84",
      "-433",
      "-34"
    ]
  ],
  "b2": [
    "12469980",
    "6610941"
  ],
  "clientCertificate": "123456",
  "salt": "78910",
  "nonce": "70",
  "modelHash": "2343324374875334899627985686754708129507583347351797042537511112568400053839",
  "inputHash": "19599199619486971801442426279497615427148032665020409835619821867415337100654",
  "clientID": "10481795837344697232185453302355071963745123196802879963553243120939139498969",
  "requestHash": "15296623681360742204558222689075047578354970938383118844566437585145803556177",
  "normalScore": "4620381",
  "attackScore": "14460540"
}