{
  "x": [
    "100",
    "0",
    "33",
    "10",
    "17",
    "20"
  ],
  "W1": [
    [
      "-2",
      "-3",
      "2",
      "-3",
      "3",
      "0"
    ],
    [
      "3",
      "-2",
      "-3",
      "3",
      "2",
      "3"
    ],
    [
      "-1",
      "-1",
      "1",
      "0",
      "-2",
      "-1"
    ],
    [
      "1",
      "-3",
      "-1",
      "-1",
      "-3",
      "-3"
    ]
  ],
  "b1": [
    "0",
    "-4",
    "-2",
    "1"
  ],
  "W2": [
    [
      "-107",
      "-84",
      "433",
      "34"
    ],
    [
      "107",
      "84",
      "-433",
      "-34"
    ]
  ],
  "b2": [
    "12469980",
    "6610941"
  ],
  "clientCertificate": "123456",
  "salt": "78910",
  "nonce": "85",
  "modelHash": "2343324374875334899627985686754708129507583347351797042537511112568400053839",
  "inputHash": "6622512126207614177275722400489430518445311765867867957671475466621284306175",
  "clientID": "10481795837344697232185453302355071963745123196802879963553243120939139498969",
  "requestHash": "20962794676802027342937148121833090110274375905735004500800359325971458295410",
  "normalScore": "9094616",
  "attackScore": "9986305"
}